digraph Tree {
node [shape=box, style="filled, rounded", color="black", fontname=helvetica] ;
edge [fontname=helvetica] ;
0 [label="petal length (cm) <= 2.45\ngini = 0.666\nsamples = 100\nvalue = [31, 35, 34]\nclass = versicolor", fillcolor="#39e58104"] ;
1 [label="gini = 0.0\nsamples = 31\nvalue = [31, 0, 0]\nclass = setosa", fillcolor="#e58139ff"] ;
0 -> 1 [labeldistance=2.5, labelangle=45, headlabel="True"] ;
2 [label="petal width (cm) <= 1.75\ngini = 0.5\nsamples = 69\nvalue = [0, 35, 34]\nclass = versicolor", fillcolor="#39e58107"] ;
0 -> 2 [labeldistance=2.5, labelangle=-45, headlabel="False"] ;
3 [label="petal length (cm) <= 5.35\ngini = 0.188\nsamples = 38\nvalue = [0, 34, 4]\nclass = versicolor", fillcolor="#39e581e1"] ;
2 -> 3 ;
4 [label="gini = 0.105\nsamples = 36\nvalue = [0, 34, 2]\nclass = versicolor", fillcolor="#39e581f0"] ;
3 -> 4 ;
5 [label="gini = 0.0\nsamples = 2\nvalue = [0, 0, 2]\nclass = virginica", fillcolor="#8139e5ff"] ;
3 -> 5 ;
6 [label="petal length (cm) <= 4.85\ngini = 0.062\nsamples = 31\nvalue = [0, 1, 30]\nclass = virginica", fillcolor="#8139e5f6"] ;
2 -> 6 ;
7 [label="gini = 0.444\nsamples = 3\nvalue = [0, 1, 2]\nclass = virginica", fillcolor="#8139e57f"] ;
6 -> 7 ;
8 [label="gini = 0.0\nsamples = 28\nvalue = [0, 0, 28]\nclass = virginica", fillcolor="#8139e5ff"] ;
6 -> 8 ;
}